 genomestart  1
 node 1 0 1 1
 node 2 0 1 1
 node 3 0 1 1
 node 4 0 1 1
 node 5 0 1 1
 node 6 0 1 1
 node 7 0 0 2
 node 8 0 0 2
 node 9 0 0 2
 node 10 0 0 2
 node 11 0 0 2
 node 12 0 0 2
 node 13 0 0 2
 node 14 0 0 2
 node 15 0 0 2
 node 16 0 0 2
 node 17 0 0 2
 node 18 0 0 2
 node 19 0 0 2
 node 20 0 0 2
 node 21 0 0 2
 gene 1 1 7 0.0 0 1 0 1
 gene 1 1 8 0.0 0 1 0 1
 gene 1 1 9 0.0 0 1 0 1
 gene 1 1 10 0.0 0 1 0 1
 gene 1 1 11 0.0 0 1 0 1
 gene 1 1 12 0.0 0 1 0 1
 gene 1 1 13 0.0 0 1 0 1
 gene 1 1 14 0.0 0 1 0 1
 gene 1 1 15 0.0 0 1 0 1
 gene 1 1 16 0.0 0 1 0 1
 gene 1 1 17 0.0 0 1 0 1
 gene 1 1 18 0.0 0 1 0 1
 gene 1 1 19 0.0 0 1 0 1
 gene 1 1 20 0.0 0 1 0 1
 gene 1 1 21 0.0 0 1 0 1
 gene 2 2 7 0.0 0 2 0 1
 gene 2 2 8 0.0 0 2 0 1
 gene 2 2 9 0.0 0 2 0 1
 gene 2 2 10 0.0 0 2 0 1
 gene 2 2 11 0.0 0 2 0 1
 gene 2 2 12 0.0 0 2 0 1
 gene 2 2 13 0.0 0 2 0 1
 gene 2 2 14 0.0 0 2 0 1
 gene 2 2 15 0.0 0 2 0 1
 gene 2 2 16 0.0 0 2 0 1
 gene 2 2 17 0.0 0 2 0 1
 gene 2 2 18 0.0 0 2 0 1
 gene 2 2 19 0.0 0 2 0 1
 gene 2 2 20 0.0 0 2 0 1
 gene 2 2 21 0.0 0 2 0 1
 gene 3 3 7 0.0 0 3 0 1
 gene 3 3 8 0.0 0 3 0 1
 gene 3 3 9 0.0 0 3 0 1
 gene 3 3 10 0.0 0 3 0 1
 gene 3 3 11 0.0 0 3 0 1
 gene 3 3 12 0.0 0 3 0 1
 gene 3 3 13 0.0 0 3 0 1
 gene 3 3 14 0.0 0 3 0 1
 gene 3 3 15 0.0 0 3 0 1
 gene 3 3 16 0.0 0 3 0 1
 gene 3 3 17 0.0 0 3 0 1
 gene 3 3 18 0.0 0 3 0 1
 gene 3 3 19 0.0 0 3 0 1
 gene 3 3 20 0.0 0 3 0 1
 gene 3 3 21 0.0 0 3 0 1
 gene 4 4 7 0.0 0 4 0 1
 gene 4 4 8 0.0 0 4 0 1
 gene 4 4 9 0.0 0 4 0 1
 gene 4 4 10 0.0 0 4 0 1
 gene 4 4 11 0.0 0 4 0 1
 gene 4 4 12 0.0 0 4 0 1
 gene 4 4 13 0.0 0 4 0 1
 gene 4 4 14 0.0 0 4 0 1
 gene 4 4 15 0.0 0 4 0 1
 gene 4 4 16 0.0 0 4 0 1
 gene 4 4 17 0.0 0 4 0 1
 gene 4 4 18 0.0 0 4 0 1
 gene 4 4 19 0.0 0 4 0 1
 gene 4 4 20 0.0 0 4 0 1
 gene 4 4 21 0.0 0 4 0 1
 gene 5 5 7 0.0 0 5 0 1
 gene 5 5 8 0.0 0 5 0 1
 gene 5 5 9 0.0 0 5 0 1
 gene 5 5 10 0.0 0 5 0 1
 gene 5 5 11 0.0 0 5 0 1
 gene 5 5 12 0.0 0 5 0 1
 gene 5 5 13 0.0 0 5 0 1
 gene 5 5 14 0.0 0 5 0 1
 gene 5 5 15 0.0 0 5 0 1
 gene 5 5 16 0.0 0 5 0 1
 gene 5 5 17 0.0 0 5 0 1
 gene 5 5 18 0.0 0 5 0 1
 gene 5 5 19 0.0 0 5 0 1
 gene 5 5 20 0.0 0 5 0 1
 gene 5 5 21 0.0 0 5 0 1
 gene 6 6 7 0.0 0 6 0 1
 gene 6 6 8 0.0 0 6 0 1
 gene 6 6 9 0.0 0 6 0 1
 gene 6 6 10 0.0 0 6 0 1
 gene 6 6 11 0.0 0 6 0 1
 gene 6 6 12 0.0 0 6 0 1
 gene 6 6 13 0.0 0 6 0 1
 gene 6 6 14 0.0 0 6 0 1
 gene 6 6 15 0.0 0 6 0 1
 gene 6 6 16 0.0 0 6 0 1
 gene 6 6 17 0.0 0 6 0 1
 gene 6 6 18 0.0 0 6 0 1
 gene 6 6 19 0.0 0 6 0 1
 gene 6 6 20 0.0 0 6 0 1
 gene 6 6 21 0.0 0 6 0 1
 genomeend 1